{"layers": [{"nodes": [{"value": 1314.29966863981,"weights": [0.241064032785348,-1.05677811151702,7.595403314607,0.257256104132765,0.267954783028736,14.1697988775269,0.0305894506876101,0.522806214182865,0.108480050817798,-0.5773647083818,0.617650329941614,3.37773790015774,3.56636657068712,0.00729020028334302,-5.00902308154131,-3.11662045327157,-0.489846241599675,-0.000341155647678652,2.8676168864046,0.0315707018777934,55.6607049123419,0.471762868622797,0.162033029604312,0.235526240214947]},{"value": 0,"weights": [-1.47338031306741,-3.85855118890595,-3.9920093603538,0.0782917544660949,-0.676195645897894,0.251370140861716,-2.09173063490918,-2.03730024383447,-2.98708531962943,0.775348425113452,1.92220121250396,-11.7859295749031,-0.217780409919693,-15.6585539292425,-0.129192975960944,-0.0138561748230588,27.959316017609,-0.394364188890966,0.287832582596935,-0.0604377127617457,0.15704970047681,1.00565284738106,0.207790791996258,-0.00316743443528025]},{"value": 0,"weights": [2.39237973538655,-2.51451066226597,-0.121903991812612,-0.272886120608897,6.58218118061197,-0.756062243674052,-85.6267495385927,-1.85495716989772,-0.400566833881266,-0.0058637931465629,0.0666854135276638,0.327668389757206,-0.64728246318732,0.641589487192273,6.01714911988629,-4.55518690032268,0.0388062492809853,1.25034650357466,0.272228127965559,-0.406755761993431,-0.905885951653096,-1.17895259640991,-168.119286554557,-2.06584403766284]},{"value": 1369.56944776203,"weights": [0.0895918711305257,0.0641875392937892,0.0305636730095368,0.687721354826711,12.0199821722366,0.263978383078897,-0.282511607850234,-0.0018791381698303,0.206291046765214,-0.347106064993255,-0.174793555526056,1.00115942133604,-4.05114616080921,2.74572412565109,-1.12586545945378,-24.7106752070722,-0.230037841322773,-3.61775829679976,0.131541598750124,-2.24420245665974,13.018233653675,2.93649299157136,-0.346363839379509,-0.0137117486967252]},{"value": 0,"weights": [-2.77743536928576,-0.195283246845681,-1.12952810928201,-0.16851539484849,0.105749222362692,-0.368594221130665,-0.0593831911436796,-0.344111499240756,0.33312216740813,13.1173513808805,-18.6503515745829,-1.14034498536192,2.89806314890551,11.1225150987687,0.321245481365936,15.0017989578196,0.779164581261649,0.113824084498386,-1.84645430922814,4.5324129076849,-0.688899991183935,4.96799228775911,-1.23794370134541,1.7147951668073]},{"value": 0,"weights": [-0.00430721629037167,0.987800012746588,-0.731415903474068,-0.0397658434844588,-8.07067748927425,-0.177724978882605,1.50234619492785,-1.50146327552095,-4.36187017703374,-32.7630729775575,0.0238248119692627,0.000542522135977328,-0.0974355783546912,1.07865312949655,0.0064230854204635,-9.46343636030871,3.87080421548367,0.763617917256182,1.91421915231369,0.0111635659985734,-0.115011377825744,5.20492265503142,-0.94921670643482,-0.00332345547995649]},{"value": 0.109771295989725,"weights": [-0.0670563561175548,0.423149125037558,-0.0416358078234935,-0.954581646181928,-2.76778783672232,1.92993905258558,2.95956693095869,3.05354143528339,0.195714743222224,-0.216923276717522,-0.0714085179500356,-0.0987319582620272,-7.83604534776935,-0.307297095200307,15.311105017424,-3.46400360993068,-0.859562652305877,1.43858058183664,-7.6353319756291,11.7108043296,0.0868646402817928,-4.51360769995728,0.0395994088889763,8.10996813681699]},{"value": 1832.79337947315,"weights": [-0.827096698274545,21.3331512041505,-2.80241651905451,-0.101566151473787,0.880845379020176,-1.20461215269227,-7.83270756984032,-0.0997292460551133,-2.66011067290468,0.671865686013968,1.68062761988202,-0.93349351664021,8.74122758334989,0.0998928520151214,3.48799318615355,-4.88627554088997,-16.0477189694113,-0.000685451971598715,-3.693995446358,1.11831297430309,-0.417012798874935,0.850726956954818,-1.57788166679034,0.471038564336066]}],"type": "RELU","inputCount": 24},{"nodes": [{"value": 1,"weights": [-0.524553385665193,-28.3374989611804,128.11268449243,0.379218031130344,-43.5521070999625,6.66980062819477,0.00919820542029559,-0.322123434919063]},{"value": 1,"weights": [10.3123469605397,60.5369819232439,-5.32332290746781,-50.7254412325432,-31.7494465550283,16.5933996360974,2.31276411198064,5.94137972720095]},{"value": 0,"weights": [1.56380035269783,0.340075972586249,0.931715145476174,1.2363815631241,108.368254002548,-18.3431565691393,11.5238183253161,-0.676806173232794]},{"value": 1,"weights": [-7.72153962490694,11.9487989878178,0.809654734612535,-0.200752770194215,-1.02723977441669,-0.581532246466094,0.585042249467282,5.43101662175971]},{"value": 0,"weights": [-0.00141725373279476,-3.44788639919987,-3306.82585666389,22228.0585783387,0.0790118461737136,2.83466263280747,-0.514063376027099,0.00555253179261191]},{"value": 1,"weights": [1.30543596658152,2.49204976492831,-13.6495444378759,-0.958601518596936,-33.5944008610863,-0.00247148632499415,0.216425828685404,-3.83547354147652]},{"value": 0,"weights": [6.96302183330341,-3.35306042657788,-45.1785196256715,108.289200155625,0.10021672198782,11.6087687584498,2.6878223041268,2.98706837251803]},{"value": 0,"weights": [41.7360875749617,-2.57541968929418,0.000112010544412412,-0.315042284775725,8.03680125281489e-05,21.4567642323461,0.00172230715223813,-0.0341838260802112]}],"type": "SIGMOID","inputCount": 8},{"nodes": [{"value": 8725.25308248525,"weights": [-28.4466389913623,1710.23809112622,-0.054901107753025,8606.82005915006,-403.067651597694,-1563.35842879967,-5708629.43065322,-106490.064819234]}],"type": "RELU","inputCount": 8},{"nodes": [{"value": 1,"weights": [-1146691.80683857]},{"value": 1,"weights": [-21.7825901269557]},{"value": 1,"weights": [-65.9396401717177]},{"value": 0.725812917817397,"weights": [-0.000111570665422089]},{"value": 1,"weights": [-9.13292843478022]},{"value": 0,"weights": [30403.6528873219]},{"value": 0,"weights": [289.009905492311]},{"value": 1,"weights": [-1.81702111552261]}],"type": "SIGMOID","inputCount": 1},{"nodes": [{"value": 94.508943366949,"weights": [0.481443428298489,1.11732475799779,6.41661980090028,0.240926418186297,0.260639044689895,0.46650410414998,0.0156869152591356,86.0580488284995]},{"value": 0,"weights": [-9.79393379577539,2.04959978748743,1.04956188413918,-0.00178375945237033,0.100301384433444,1.32492725632244,-0.680160832698245,0.459399549015901]},{"value": 40.0689915934161,"weights": [1.80364869295603,8.01619011334124,1.09857235964236,8.26512225293849,21.1337540591598,4.44014512928496,0.796078198244804,2.01789386979392]},{"value": 43.7617291906911,"weights": [2.19606205529582,0.20606367243255,0.514417611233977,2.49882989643771,29.1067199138195,0.0511633885551504,1.51621829240706,9.92478291964647]},{"value": 27.9499608008946,"weights": [0.49048440732811,0.524078593078085,17.0393068070825,8.73939464461723,-0.0558671922450329,6.86798545702212,1.54024814932566,3.60879265868354]},{"value": 114.558325885877,"weights": [1.46302584270335,-0.00852369008211727,-3.26167022953844,153.736188467441,4.76848097071525,7.19752983633488,-1.46140734016826,0.0133014664004215]},{"value": 20.2447694127582,"weights": [1.43011827586209,-3.23272412114468e-05,0.98184067732088,3.73103115500812,0.707752024504579,-0.0338903050275483,0.000287784560004971,14.4170601532278]},{"value": 0,"weights": [0.0154106667925686,-0.31098389628095,-0.338390942642027,-0.0117005607963468,-0.237413702197666,0.0116667109002516,2.8984940456962,-0.0332577650563809]},{"value": 0,"weights": [0.211352836709642,0.682080115207032,0.80815223872609,0.0290655410880629,0.372618008810832,0.433544114099424,0.000197702193097186,-5.07159902539132]},{"value": 0,"weights": [0.225666717215242,-1.20432275331354,-1.6830506671288,-1.42017427087824,-6.68336254715238,-1.11871210367355,-28.8407823174388,-0.0292603169423461]},{"value": 0,"weights": [-4.68829181496478,-0.391870147483354,-0.0643377068767803,-0.0722466530742824,-0.00566377002264428,0.257690829543054,0.0702821439437108,0.964296031359817]},{"value": 0,"weights": [-0.612912769183638,1.92831166202297,-0.604399732020669,2.99343129521439,-2.35220407446201,-1.23817352448166,-5.09905868981478,-1.67693460537133]},{"value": 0,"weights": [-0.194966012600533,-0.0018364398481292,0.210652238908883,0.11507873372664,-1.41553325437853,-0.116943228134206,-0.69245486222056,-0.00538400863977571]},{"value": 0,"weights": [0.0100865087592598,0.569677744252278,-0.382774644290254,-31.165306172092,-0.76449776747484,16.3856578233092,0.488092622445772,-1.43494396302553]},{"value": 0,"weights": [-2.90954331960916,-0.643167343816565,-3.96096292579991,-13.8613302919181,-10.3291464698391,-7.95506436041203,-1.63785285810821,1.96682312745174]},{"value": 0.415299982844833,"weights": [0.463417974506755,-0.442752427656431,0.502647528612487,-0.943220518516643,0.584661289175961,-3.87918873852514,0.100621079901065,-0.00807274510413646]},{"value": 0,"weights": [-1.64610546047794,-12.3202216043578,-1.88564484919019,7.29831896831566,0.389970621143076,8.20893666352208,-1.60254266855276,8.94726250818216]},{"value": 0,"weights": [-0.142703316930156,0.935733004677577,-0.245071600414528,0.532262742705181,-1.36446915011664,-1.15346578363656,-1.20421872920488,0.0574377987936406]},{"value": 1.42257200517537,"weights": [0.0178244150937802,0.916903108226484,-0.592415010685349,4.52158768871962,-2.57467964809234,0.146686898903156,0.436733679617418,0.373112387115982]},{"value": 0,"weights": [-0.117271379712064,0.0479727421674445,-5.06636725079152,0.0450058717358649,-2.83957993350605,-8.82177290819548,-0.159659860735235,-1.69960960004881]},{"value": 0,"weights": [0.393715553178698,-0.237991157174698,-0.632931591600664,-0.00478057211061951,-1.71442387287136,-1.94368244232421,0.9001196997987,0.0310850417873356]},{"value": 0,"weights": [-1.55949974975386,-3.84979353647598,0.359580180666859,3.05339642644369,-1.19099652223738,0.0149526880665623,-0.0568267243214357,0.620507677302884]},{"value": 0,"weights": [0.208389845900888,0.198895531933597,-0.899779808551105,-11.1712167546902,-0.0271564786992697,-0.692823145877486,-0.255437662419343,1.15764784690507]},{"value": 0,"weights": [0.0218139645939288,-0.17107049962406,-29.4647812740069,-12.0592720373941,-4.6959243179539,16.1502377574951,-0.0027700529671957,0.0152957446127077]}],"type": "RELU","inputCount": 8}]}