{"layers": [{"nodes": [{"value": 106.494905227229,"weights": [-0.223037055854818,-1.05677811151702,-18.1269492772308,0.257256104132765,0.618055923729505,40.1020136119843,0.0305894506876101,-0.163885756409791,0.323233140938784,-0.939593579403439,0.617650329941614,-9.18276967605449,4.2332773693349,-0.00822177790227675,5.85500719926285,1.78913502882834,-2.9204172267895,0.00162106122182886,-1.17860614305603,-0.00240714751993764,-91.0814062652461,-1.19702737412322,0.0416480823293777,1.35961461592233]},{"value": 0,"weights": [1.19024505421239,-3.40115947426814,0.628036793588122,-0.0170690816697951,-3.43060610920546,0.707184528156023,-6.46309612785993,5.44671412016201,-9.64460573126802,0.0220606818532418,-5.25012884267955,-4.17360229913139,-1.26290701050034,4.26765700846875,-0.129192975960944,-0.0084732961499844,-72.3911954738443,0.927643926345559,0.14538361239921,-1.21237968031793,0.15704970047681,-6.83778503882558,0.0336864579487056,-0.0206860087880767]},{"value": 0,"weights": [-5.98905969793717,10.1098242346211,-0.595311647781417,0.576807317919941,17.3716721072776,-1.4934901480437,-85.6267495385927,-30.993931269603,0.601174370492556,-0.0058637931465629,-0.0112784545014666,1.57677543899491,0.400081066388405,-0.311486339776182,-32.5728534977207,-3.8982870398971,-0.0178046042275547,1.25034650357466,-0.643739690735467,0.271584931729946,-2.78631866310215,25.1068176070145,-46.3896441921545,-2.06584403766284]},{"value": 0,"weights": [-0.155557185949623,0.288964088361807,-0.0668378512013666,-1.62512576733819,-10.6190355552354,-0.280973486000099,-0.500070414190993,0.000134897841771723,-0.341610666967635,0.146325245545053,5.25318278626036,4.51854212165646,-4.05114616080921,3.7126600109896,-0.900862537931654,-11.8269583547047,-0.230037841322773,10.8531004964207,0.677833996434824,-2.24420245665974,-53.6222362469762,-41.4003437489548,-0.466081828613651,-0.0121309063183803]},{"value": 0,"weights": [-12.5954960014337,0.252464703132342,-1.12952810928201,5.2760752280639,-12.4659123032739,0.601867468545584,0.166247587955889,-0.564638470325292,0.0141906861038035,-64.8139338385185,-65.3687341686158,-0.544663709041415,-7.1743069629146,16.0925123401239,0.901408051662904,93.1226319744807,0.121771634072171,-0.699102461802002,-6.41386180897737,-59.1739319530395,-1.5209426653749,-13.8458905576553,-1.23794370134541,-1.58001123820215]},{"value": 1090.10845832405,"weights": [-0.0249192507381697,0.987800012746588,-0.731415903474068,-0.142798531103043,10.1815763918621,0.357049580153422,-1.61519377543146,-5.02691597085161,0.324883913523556,42.160252701708,0.107113911881917,-0.000139136187310086,0.162898137660009,1.98368325736248,0.0154931127955978,-9.46343636030871,-360.921406795367,0.216969470279598,-6.53300216135292,0.0220507326874141,-0.452909150962043,50.532300043207,-1.7293945062791,-0.00332345547995649]},{"value": 0,"weights": [-0.203904199522576,1.10742528670293,0.0171977799201557,-1.32529256441785,1.79074123244372,-1.35935611205008,-91.1969879590786,8.99707005535303,0.151282967303019,0.181309373737304,-0.00488056107958686,-0.240680220216345,-17.80732449913,-0.307297095200307,-99.0691003915192,2.46801511350638,-0.677858664177415,-4.05095831979752,-25.1444128408822,70.7715672231101,0.000292552979989376,-0.0149004171618866,0.402793298925665,-32.3181919723084]},{"value": 198.778289302704,"weights": [6.75596101508017,2.52700811859324,-1.10673527158467,-0.220477340077262,2.41255179580817,-1.56077151652031,-15.1185359425652,-0.0546294956810246,-2.66011067290468,-3.12294575407431,-0.150715317162698,5.70428083417897,18.2819406455581,0.248453511168262,-12.5176294900274,-35.9445020284732,-6.59845917581276,-0.00115838798810475,-3.693995446358,5.08506420871563,0.612332545765006,-1.06619113637113,-2.48498322528093,-0.0714540951817287]}],"type": "RELU","inputCount": 24},{"nodes": [{"value": 1,"weights": [-0.160255671635289,10.6410504248016,-2269.84545274461,-0.0199234259757668,117.106589780382,-1.76437540122832,0.0407554840005437,-0.283954412929531]},{"value": 7.07681929827393e-24,"weights": [-19.0195338545726,6.11923567481509,1.33900117859632,-420.656043906491,-21.7487285666189,-0.950490627810323,-0.321093479329245,15.6703561173714]},{"value": 0,"weights": [-299.574220772006,0.793438598343615,-0.0736651572413648,1.28386491563473,-86.9803325140523,410.334302287778,-772.511511705957,0.0754827317083889]},{"value": 1,"weights": [-23.0862258912328,46.4833629045862,35.4920311899013,-1.32177898842491,7.98351606775706,0.914758316598088,3.64190031210312,0.241614681916394]},{"value": 1,"weights": [0.000444221577137822,-40.0015334633643,-36438.0171676447,69545.4211317416,0.195413609485769,-88.9648773240843,-9.81879125839642,0.0249776181499957]},{"value": 1,"weights": [2.66961888669613,11.8647387849786,2.43470091031323,-0.91402718870761,2.73843882416381,-0.00496311924902704,-0.810685824240773,-1.99317291763377]},{"value": 0,"weights": [0.126059395756156,0.22803040007962,21.3256364481446,-12.855489574739,15.2021826898367,32.8061155603024,-10.414520752298,-12.5831129945576]},{"value": 0,"weights": [25.1080507464039,1.89277041565854,-0.00436305922193358,-8.9023177041255,-0.000376365428394556,344.880178193314,-0.0149566103209052,-0.0195001876812467]}],"type": "SIGMOID","inputCount": 8},{"nodes": [{"value": 4885.23934547229,"weights": [3118.12769564225,4498.50100380267,0.254545547526366,3547.35174363478,18.4345098211374,-1798.67460362588,36313609762.3144,47756053.5318676]}],"type": "RELU","inputCount": 8},{"nodes": [{"value": 1,"weights": [-133941139.001092]},{"value": 1,"weights": [-3.44917460096984]},{"value": 1,"weights": [-291.708724131815]},{"value": 0.593862933478229,"weights": [-7.7776760733316e-05]},{"value": 1,"weights": [-0.0780305565665201]},{"value": 1,"weights": [-12733.7624895138]},{"value": 1,"weights": [-22991.1313682211]},{"value": 1,"weights": [-23.9764911175007]}],"type": "SIGMOID","inputCount": 1},{"nodes": [{"value": 93.8013443622746,"weights": [-2.37558424134019,1.11732475799779,6.41661980090028,0.0291646567051028,0.917615130055812,1.67619287024604,-0.0261925926693507,86.0580488284995]},{"value": 107.158038405065,"weights": [43.5612268216979,62.3346847645696,-2.99619840763562,-0.00448380482583857,-0.804355693267644,3.81951154819184,1.07497769629684,0.170854440699461]},{"value": 108.667928162159,"weights": [5.72779014313062,28.7513138352087,-4.43410864509869,30.2825178280248,42.6714440287416,6.90141492287826,2.18015560744136,8.8862533993999]},{"value": 105.589463787345,"weights": [2.07463946183875,1.49701359768064,0.514417611233977,2.01422141427749,73.7391004491165,0.130343399294297,3.88478103926505,22.5529967911587]},{"value": 100.31181333777,"weights": [2.14251006459973,0.524078593078085,67.7244254662321,23.5477294787545,-0.00374325161650427,6.86798545702212,4.10099359527607,4.97143970817355]},{"value": 83.8338304304605,"weights": [-5.53680004192207,-0.00969048839593559,-9.67329227596193,153.736188467441,2.03638789979643,7.19752983633488,-1.46140734016826,-0.0171210242589471]},{"value": 91.5854050432317,"weights": [-3.3151722301034,-4.41455553002315e-06,-1.71952272439144,137.830226530246,0.422360122029728,-0.0723369314730499,0.000758419276845218,14.4170601532278]},{"value": 27.4644394851216,"weights": [0.0522726241606036,0.395368718286843,12.0041030582453,-0.0117005607963468,0.612238556320413,0.0290352589220169,14.4573372328724,-0.0789674343281115]},{"value": 0,"weights": [0.211352836709642,-3.45268539522265,0.80815223872609,0.0290655410880629,-1.80714810411139,0.905199610473654,0.0023266969086911,-11.0478277685741]},{"value": 0,"weights": [-0.111487138096661,-1.20432275331354,-0.140957056869887,4.21193323849946,-3.52195483603895,1.41079154324952,-28.8407823174388,-0.0536580558894308]},{"value": 0,"weights": [-6.01637835049294,0.0898492086485275,0.0533378734297857,0.0662938200509728,-0.00566377002264428,-0.139369699414426,-0.00431920323948888,-3.74335276542456]},{"value": 0,"weights": [-0.612912769183638,7.6097637294112,0.467569098954252,-27.2774448990463,-0.0193039147018177,6.08295728385257,-11.6131084628813,0.525804399190906]},{"value": 0.562668200575649,"weights": [-0.340376508535218,0.00113578810967121,0.0661654304952165,1.43014661903001,0.241109506110581,0.011665436140403,-0.233705666823708,-0.0326368514024274]},{"value": 0,"weights": [-0.0235626595728213,1.7876453861004,0.982130920749793,-31.165306172092,0.269978925605502,-7.58123915144529,0.488092622445772,-1.43494396302553]},{"value": 0,"weights": [-2.90954331960916,-0.643167343816565,-0.264309522118746,-26.3138824552786,-28.2731286082178,11.2793195134362,-4.35255436840068,1.96682312745174]},{"value": 0,"weights": [-0.0450191209970353,-0.442752427656431,-0.026596927867484,-1.21672529123818,4.09561731422667,-10.7106352050348,0.165353949482332,-0.0163163409830047]},{"value": 0,"weights": [-0.00384066050053388,-12.3202216043578,-1.88564484919019,0.947585113935364,-0.0885672601802495,-1.7879066376506,-1.60254266855276,2.33137416380417]},{"value": 0,"weights": [-0.142703316930156,-2.16109080242633,1.87665509745644,-2.57040108952272,1.08474696321588,9.63847598340636,-15.7667511213094,0.228770470726042]},{"value": 0,"weights": [-0.0192211219685887,-1.9371088383276,1.71509463325668,-4.61283526426122,1.20617624234392,-0.0657617725805747,0.436733679617418,0.373112387115982]},{"value": 0,"weights": [-0.00879841816832596,0.105878659538317,-0.511062462287309,-0.285199987331514,-1.3131493783554,-6.15791015150183,-0.425261638831974,0.994241569182148]},{"value": 0,"weights": [0.867082283486874,-0.237991157174698,-1.10017338075326,0.0125070907397814,-1.35096144149203,-0.835974669005124,1.16704162260824,0.078116471569705]},{"value": 0,"weights": [-4.39682977065574,13.0833888466773,0.174611946137943,-6.21135003593697,-5.65268726942806,-0.055984495330478,-0.0568267243214357,-1.58745786036962]},{"value": 0,"weights": [-0.034185928554244,-0.082845153077718,-1.40329305492185,-4.72731386627063,0.00454830958531492,-0.748120819730381,-0.255437662419343,1.15764784690507]},{"value": 0,"weights": [0.0218139645939288,-0.00591540592932348,-29.4647812740069,4.62506010322312,-2.46047075808917,27.5903124186492,0.00103145832393026,0.0367369065775583]}],"type": "RELU","inputCount": 8}]}