{"layers": [{"nodes": [{"value": 0,"weights": [-0.223037055854818,-1.05677811151702,-18.1269492772308,0.257256104132765,0.11929976672772,40.1020136119843,0.0409557457918257,0.280459957813592,0.323233140938784,-0.939593579403439,0.617650329941614,-9.18276967605449,10.1549498602335,-0.00822177790227675,15.3940576756744,2.53305687796819,6.37685582007542,0.00137453087013752,2.11763693327106,-0.00240714751993764,-7.03062912038246,-1.19702737412322,0.0416480823293777,1.35961461592233]},{"value": 0,"weights": [1.19024505421239,-3.40115947426814,0.628036793588122,-0.0259130897280475,-4.52088257789899,0.707184528156023,-6.46309612785993,6.87064315134574,-9.64460573126802,0.0220606818532418,-6.04794502952276,0.0813718958017756,-2.72659687737236,-15.6830634868116,0.217457846711036,-0.0084732961499844,-72.3911954738443,2.57902898874067,-0.203834829711377,-1.21237968031793,0.15704970047681,3.85660962799348,-0.0556942530003795,-0.00682699291571643]},{"value": 0,"weights": [16.5863667650333,10.1098242346211,-2.50777132244107,-0.295804371535384,17.3716721072776,-1.4934901480437,-85.6267495385927,-30.993931269603,-0.418765846572853,0.008251839921444,-0.0112784545014666,-1.53864292177363,0.400081066388405,-0.1268921994616,-9.48812811168392,-3.8982870398971,-0.207210100034235,-4.64303447188529,2.37640960228816,-0.411020182643054,-6.20328712340047,25.1068176070145,-46.3896441921545,-2.06584403766284]},{"value": 0,"weights": [-0.155557185949623,2.41311672967352,-0.125307064704698,-1.62512576733819,-20.2533228145911,-0.280973486000099,-0.500070414190993,0.000134897841771723,-0.341610666967635,0.146325245545053,-0.774791744128346,4.51854212165646,-4.05114616080921,2.3457207649783,-2.91081297243662,-5.57378772075888,0.370314023819629,10.8531004964207,-0.0869544688409958,-2.24420245665974,148.279351258579,-41.4003437489548,-0.466081828613651,-0.0121309063183803]},{"value": 0,"weights": [-12.5954960014337,0.252464703132342,-1.12952810928201,5.2760752280639,-12.4659123032739,0.601867468545584,0.231936672447281,-0.937281170046114,0.0174186856705301,-64.8139338385185,-65.3687341686158,-0.544663709041415,19.6634583601794,-8.01944531419088,2.23565090279835,93.1226319744807,0.121771634072171,-0.699102461802002,4.34217247882703,-59.1739319530395,2.20329218727865,35.7527625004069,3.46979447077777,-1.58001123820215]},{"value": 2043.54073514478,"weights": [-0.00917877142528539,0.987800012746588,-0.731415903474068,-0.142798531103043,10.1815763918621,-0.83803728231697,1.10331339314765,10.4226125631531,0.324883913523556,42.160252701708,0.107113911881917,-0.000139136187310086,0.162898137660009,1.98368325736248,0.0154931127955978,-14.9933161835833,-360.921406795367,0.216969470279598,3.73717534634945,0.00255604104261452,-0.452909150962043,-125.668856697307,-1.7293945062791,-0.00332345547995649]},{"value": 0,"weights": [-0.485042265933871,-1.52247380528656,-0.0484813459896453,-4.38659600534266,1.79074123244372,-0.644899957347281,-91.1969879590786,8.99707005535303,-0.148052094748391,-0.190539436331276,0.000364676793678393,-0.240680220216345,-17.80732449913,0.126475464850576,-99.0691003915192,7.28333451419797,-0.677858664177415,-4.05095831979752,59.0841338155861,-77.3254914946958,0.000292552979989376,-0.00311107866924022,0.402793298925665,-118.13072680865]},{"value": 0,"weights": [2.96955773316106,-7.25050277424016,-6.74321711650025,0.478961329972988,-1.07035089403017,-2.66627729003298,-15.1185359425652,0.00353134939905009,-2.1155092805067,-5.01743334953431,0.193597327486403,5.70428083417897,18.2819406455581,0.248453511168262,-12.5176294900274,-39.5466409522032,-6.59845917581276,-0.00115838798810475,1.95233815212355,9.59289877899533,0.612332545765006,-1.06619113637113,2.04367107523023,-0.0714540951817287]}],"type": "RELU","inputCount": 24},{"nodes": [{"value": 1,"weights": [-0.0130923613823661,0.968782811443925,-2269.84545274461,-0.00140737728954716,-76.1539614427019,-2.17026605127919,-2.1975096498913,-1.79960611831652]},{"value": 3.97334080268741e-125,"weights": [-47.9360964938126,-32.9978324026045,7.18383619808532,58.492359826901,-21.7487285666189,0.140170302026434,0.537281873891078,50.3839204911423]},{"value": 0,"weights": [125.161941310558,1.25213650937454,0.0394471314488414,-2.84485164179174,-170.730680817148,1544.05155108827,3450.00834500712,-0.188971837098712]},{"value": 0,"weights": [-23.0862258912328,-318.659004122133,35.4920311899013,1.61773746062248,-8.87336874797401,2.84892885865237,-3.05872394573765,-2.2633919987691]},{"value": 1,"weights": [0.000444221577137822,40.5748768601425,-117478.928506759,-63790.610771137,-0.204559847053361,-182.265579768676,-30.6224591630189,-0.233065175242803]},{"value": 0.999960624584665,"weights": [2.66961888669613,11.8647387849786,-0.399260494100881,1.54761210090964,-9.02673072073062,-0.00496311924902704,-1.89003680374415,-1.99317291763377]},{"value": 0,"weights": [0.0680792866033257,2.96697245695662,21.3256364481446,-21.1179266109914,50.7525250334091,33.9335490088952,87.476090348674,-33.9104276179725]},{"value": 0,"weights": [25.1080507464039,-18.0589872211457,0.00190187071794927,-6.18760639621688,-0.000577106878315756,226.214580081448,0.0248425359359625,0.263269731764884]}],"type": "SIGMOID","inputCount": 8},{"nodes": [{"value": 1116.74045496607,"weights": [3118.12769564225,4498.50100380267,2.94560725916674,3608.50810947261,-223.680466029655,-1777.77677534542,-53306588359.5048,-133827106.880515]}],"type": "RELU","inputCount": 8},{"nodes": [{"value": 1,"weights": [-32838184.4069699]},{"value": 1,"weights": [-21.1012768190974]},{"value": 1,"weights": [-6270.26347511126]},{"value": 0.521700458484964,"weights": [-7.7776760733316e-05]},{"value": 1,"weights": [-0.209504887169049]},{"value": 1,"weights": [-44650.7008481786]},{"value": 1,"weights": [-40931.4459553058]},{"value": 1,"weights": [-182.936553750384]}],"type": "SIGMOID","inputCount": 1},{"nodes": [{"value": 104.147493226916,"weights": [5.54660729298247,1.99210096657343,6.41661980090028,0.0291646567051028,-1.40272519518611,1.67619287024604,0.000865406861547661,89.9026168697635]},{"value": 109.438958923321,"weights": [43.5612268216979,62.3346847645696,-2.99619840763562,-0.00448380482583857,1.42903562827472,3.81951154819184,1.07497769629684,0.218060074959431]},{"value": 105.280302950358,"weights": [5.72779014313062,28.7513138352087,-4.43410864509869,30.2825178280248,42.6714440287416,6.90141492287826,2.18015560744136,7.68388962309636]},{"value": 106.865354427975,"weights": [2.07463946183875,-2.31362057525052,1.61453812917078,2.01422141427749,73.7391004491165,-0.593340222361,8.74022015898332,22.5529967911587]},{"value": 105.482886970046,"weights": [1.28086229541941,0.524078593078085,67.7244254662321,23.5477294787545,-0.00374325161650427,14.5999692981368,4.10099359527607,4.97143970817355]},{"value": 81.4969283938784,"weights": [-5.53680004192207,0.00138072858633445,-9.67329227596193,153.736188467441,5.87696544175807,12.0800670025641,-1.46140734016826,0.00577486982725881]},{"value": 81.39253791135,"weights": [-3.3151722301034,-4.41455553002315e-06,-1.18486029258959,137.830226530246,-0.22293480964237,-0.208863948927458,0.00122108002478247,14.4170601532278]},{"value": 61.6868492827379,"weights": [0.0522726241606036,1.07521733950733,30.8660763456678,-0.0117005607963468,0.612238556320413,0.0788929966143294,29.0805442474058,-0.0722886390064037]},{"value": 13.9380685413226,"weights": [0.211352836709642,9.56854936775354,2.12588557520871,-0.0600031035474901,-2.5510511997194,0.905199610473654,-0.00372057175170612,3.71315656927943]},{"value": 0,"weights": [-0.111487138096661,-0.0492810873480348,-0.140957056869887,-0.818603301486162,10.1281963609134,1.35401232626009,-19.2359898862656,0.0569517459329121]},{"value": 0,"weights": [-2.98254837528631,0.105245290573365,-0.128729062401441,0.11276593431611,0.00431277938003136,-0.139369699414426,-0.00431920323948888,-0.161434125447321]},{"value": 0,"weights": [-1.81724837340855,1.62635783111997,0.467569098954252,-27.2774448990463,-0.0150458188137736,6.08295728385257,-23.0059956142956,0.525804399190906]},{"value": 0.316190097979947,"weights": [-0.340376508535218,0.00113578810967121,0.0661654304952165,1.43014661903001,0.133295883162836,-0.0237961238751009,-0.233705666823708,-0.0326368514024274]},{"value": 0,"weights": [-0.06211319516719,1.04357857956823,-0.243618345843321,-11.2450566009268,-0.180584480184384,-7.58123915144529,0.518624574383331,1.49016266369339]},{"value": 0,"weights": [5.97475973375378,-0.643167343816565,-0.264309522118746,33.628918090917,-76.4518581149934,11.2793195134362,-4.35255436840068,-7.88778518517334]},{"value": 0,"weights": [-0.0450191209970353,-0.442752427656431,-0.026596927867484,-2.00757854213624,-3.29542811625454,-19.8290303297253,-0.369725780594786,-0.0163163409830047]},{"value": 0,"weights": [0.00756607163571072,-12.3202216043578,5.57765688369794,0.308773864754823,-0.0885672601802495,-1.7879066376506,-1.60254266855276,2.33137416380417]},{"value": 0,"weights": [-0.320322947190243,-4.23997001657817,-3.59590840119306,3.29777525365541,2.26497295788383,9.95141373350955,-15.7667511213094,0.228770470726042]},{"value": 0,"weights": [-0.0192211219685887,-2.24654839571611,1.71509463325668,-4.61283526426122,1.20617624234392,-0.0657617725805747,-2.10287742037909,0.373112387115982]},{"value": 0,"weights": [-0.00692119656315623,0.105878659538317,-0.511062462287309,-0.285199987331514,-3.65220542599302,-6.68656432139751,-0.350146861162982,0.994241569182148]},{"value": 0,"weights": [0.867082283486874,-0.650001542044966,0.287825407846668,0.0125070907397814,-1.58377326044689,-0.835974669005124,1.16704162260824,0.213973365056146]},{"value": 0,"weights": [-5.86756765460102,13.0833888466773,0.00531926684014585,-6.21135003593697,-5.65268726942806,-0.055984495330478,-0.14045251381957,-1.58745786036962]},{"value": 0,"weights": [-0.0704752087294684,-0.082845153077718,-3.53870692271258,-4.72731386627063,0.00454830958531492,-0.201993623997346,0.437108141686855,1.15764784690507]},{"value": 0,"weights": [0.0218139645939288,-0.0413557951909553,-29.4647812740069,4.62506010322312,-2.46047075808917,-17.8542570061292,0.00103145832393026,-0.00276791485197979]}],"type": "RELU","inputCount": 8}]}