{"layers": [{"nodes": [{"value": 0,"weights": [-0.108468252048212,-1.05677811151702,-18.1269492772308,0.709446383956289,-0.0276926120768363,40.1020136119843,0.0409557457918257,-0.780224480530816,0.197907742647387,1.31813688441826,0.617650329941614,-3.48964631522044,10.1549498602335,-0.00321252844072575,32.0907214154288,2.53305687796819,18.3094369965281,-0.00261993372301749,-2.1889810301496,0.00435392955839236,-7.03062912038246,-2.56425953846488,0.0478793011736261,-2.77230541903651]},{"value": 0,"weights": [1.19024505421239,-3.40115947426814,-0.503501410746791,0.00477935899325198,-4.59490078931818,1.57333235853257,8.86498153756706,-2.06461228569897,-9.64460573126802,0.0220606818532418,-6.04794502952276,0.0813718958017756,-2.72659687737236,-15.6830634868116,0.217457846711036,-0.00698791964419824,117.989569975229,11.3622768561904,-0.203834829711377,-0.158983176001913,0.15704970047681,3.85660962799348,0.143575818354823,0.0123344053569257]},{"value": 140.300159287312,"weights": [16.5863667650333,-27.3202155111884,-2.50777132244107,-0.295804371535384,17.3716721072776,-3.63358391394416,-85.6267495385927,55.1567475666274,-0.418765846572853,-0.00178916666861976,0.0220482555907292,-1.53864292177363,0.400081066388405,0.26986542336976,-23.9762496012182,3.72674049986173,1.26009128060018,-4.64303447188529,2.37640960228816,-0.333021633996563,-6.20328712340047,24.0105253610482,-102.915947754517,-2.06584403766284]},{"value": 0,"weights": [-0.155557185949623,2.41311672967352,-0.125307064704698,1.91865473070118,-8.56135820745656,-0.280973486000099,0.59449393076851,0.000134897841771723,0.584838512498826,0.165996993382403,3.54949935479949,-3.14969342684327,-4.05114616080921,2.3457207649783,-2.91081297243662,-5.57378772075888,0.370314023819629,17.3979237484486,-0.0869544688409958,-2.24420245665974,148.279351258579,-41.4003437489548,-0.466081828613651,0.0330111059846542]},{"value": 165.847547079705,"weights": [-27.7119765304931,0.699205053431716,-1.2227670106409,2.42480465371261,34.4261006074055,0.601867468545584,-0.0988992478148286,-1.97526362964456,-0.046420973820305,-64.8139338385185,-65.3687341686158,0.423273328391071,-57.8751426780701,-8.01944531419088,3.63887067632271,17.338330504698,0.121771634072171,-0.711014654184001,4.34217247882703,-59.1739319530395,2.20329218727865,48.8898477576289,7.64045780721606,-1.58001123820215]},{"value": 899.818726831266,"weights": [-0.00917877142528539,0.987800012746588,-0.731415903474068,0.292147929576838,10.1815763918621,-1.17740131206415,1.10331339314765,25.4885784715588,0.324883913523556,42.160252701708,0.107113911881917,-0.000139136187310086,0.162898137660009,-0.713404073576856,0.0352929114254396,-14.9933161835833,-790.362691427546,0.216969470279598,3.73717534634945,-0.00534094861562291,0.0659998984990826,-174.954542594199,-1.7293945062791,-0.0059044645337585]},{"value": 304.532595370253,"weights": [-0.485042265933871,-1.52247380528656,-0.0484813459896453,-4.38659600534266,-3.0187784173332,-0.644899957347281,-271.068709541581,8.99707005535303,-0.302145996568705,-0.164709697791276,-0.00143811330794263,0.0510502641965797,-17.80732449913,-0.0312938593772667,170.940308472777,7.28333451419797,0.406298191497763,0.320578058616405,3.97233223476669,-77.3254914946958,0.000292552979989376,-0.00311107866924022,-1.56263682763357,-118.13072680865]},{"value": 0,"weights": [2.96955773316106,-17.5995071699583,16.2229222822856,0.478961329972988,-1.07035089403017,-3.95636415536329,-12.5284115651011,0.00353134939905009,-2.1155092805067,-12.0273786208022,-0.287039773705856,5.70428083417897,18.2819406455581,0.248453511168262,-12.5176294900274,30.679215559412,-6.59845917581276,-0.00115838798810475,3.50980530056744,-5.05271732781564,0.612332545765006,-1.06619113637113,-1.09415948186656,-0.0714540951817287]}],"type": "RELU","inputCount": 24},{"nodes": [{"value": 0,"weights": [0.0838770215644701,0.466705319363561,3059.51763987508,-0.000836587349015177,-67.9925035002134,-6.2341940492467,-4.95464578072301,-1.79960611831652]},{"value": 0,"weights": [-47.9360964938126,-498.541205956719,11.9890285085679,58.492359826901,56.5636338006801,-0.404825468319839,-1.31423384449585,103.114209420303]},{"value": 1,"weights": [-47.7982542473803,1.25213650937454,0.0574149923408751,-50.8244562183637,1496.47132460471,-877.867266116156,-6667.75162713875,-0.190322490307396]},{"value": 0,"weights": [-23.0862258912328,-318.659004122133,16.5695140679012,1.61773746062248,12.8481566286834,2.84892885865237,-15.0807118835592,4.33855936654351]},{"value": 0,"weights": [0.000350183039300705,-122.666540373495,35563.5587695982,-63790.610771137,0.0308959435072828,-541.361550624156,-72.6663643862771,-0.268596701173709]},{"value": 0.999999637545248,"weights": [2.66961888669613,0.445518780827631,0.131038082080312,-1.89976192969788,-9.02673072073062,-0.00496311924902704,4.82152662327097,-1.99317291763377]},{"value": 0,"weights": [0.0680792866033257,6.78078015875474,21.3256364481446,-10.6171107249053,31.4630121638936,33.9335490088952,78.6720922413189,-63.4451057343154]},{"value": 0,"weights": [-33.2866068712653,-18.0589872211457,0.00190187071794927,8.99656095871973,-0.00391928801832088,226.214580081448,0.0248425359359625,-1.73694996418823]}],"type": "SIGMOID","inputCount": 8},{"nodes": [{"value": 0,"weights": [2655.11350550582,3132.18333909138,-0.626955765443441,7397.91380303487,-1087.56469693759,-1328.01059505787,-611624759302.476,21719111.918853]}],"type": "RELU","inputCount": 8},{"nodes": [{"value": 0.5,"weights": [-3574595.70298178]},{"value": 0.5,"weights": [-59.7825905293836]},{"value": 0.5,"weights": [-9713.26688645216]},{"value": 0.5,"weights": [-7.7776760733316e-05]},{"value": 0.5,"weights": [-0.113417283023235]},{"value": 0.5,"weights": [-36069.2792190224]},{"value": 0.5,"weights": [-96939.4666529414]},{"value": 0.5,"weights": [-613.709865117811]}],"type": "SIGMOID","inputCount": 1},{"nodes": [{"value": 52.033301120663,"weights": [5.54660729298247,1.99210096657343,6.41661980090028,-0.0656757708152403,-1.40272519518611,1.67619287024604,0.000865406861547661,89.9026168697635]},{"value": 54.6551278448429,"weights": [43.5612268216979,62.3346847645696,-2.99619840763562,0.00554618111667789,1.42903562827472,3.81951154819184,1.07497769629684,0.0814714571738368]},{"value": 56.3031243099876,"weights": [5.72779014313062,26.3636571174471,-9.20462065078482,30.2825178280248,42.6714440287416,6.90141492287826,2.18015560744136,7.68388962309636]},{"value": 54.9317360030465,"weights": [2.07463946183875,-0.500507961974754,1.61453812917078,2.01422141427749,73.7391004491165,-0.371736436477878,8.74022015898332,22.5529967911587]},{"value": 56.2082968750917,"weights": [1.28086229541941,0.310790966605498,67.7244254662321,23.5477294787545,-0.00374325161650427,14.5999692981368,-0.0148802115219701,4.97143970817355]},{"value": 77.4355122987223,"weights": [-7.22704622704018,-0.00310562023417014,-9.67329227596193,153.736188467441,5.87696544175807,12.0800670025641,0.0803870620622476,0.000860746855542416]},{"value": 74.0803083951575,"weights": [-3.3151722301034,-4.41455553002315e-06,-1.18486029258959,137.830226530246,0.0306207187214213,0.381525245343535,0.00122108002478247,14.4170601532278]},{"value": 51.9899311904194,"weights": [0.0522726241606036,1.07521733950733,74.9803746297271,0.00984107005690408,-1.19121141481905,-0.0469518551232825,29.0805442474058,0.0197757399235162]},{"value": 9.58865677188237,"weights": [0.953123246345915,9.56854936775354,2.67299883409611,-0.178067160556875,1.5509204782921,0.905199610473654,-0.00856740191912515,3.71315656927943]},{"value": 0,"weights": [0.167100216868578,-0.0558923150368567,-0.108365511849054,0.0645776238423065,10.1281963609134,3.44104188609279,-19.2359898862656,0.0569517459329121]},{"value": 0,"weights": [-2.98254837528631,-0.30060547481114,-0.128729062401441,0.11276593431611,0.00301107048604739,-0.139369699414426,-0.00431920323948888,-0.161434125447321]},{"value": 0,"weights": [4.53915477618633,0.527334400933749,0.467569098954252,-27.2774448990463,-0.00584847211740801,6.08295728385257,-23.71355860386,0.082054914511244]},{"value": 0,"weights": [-0.88369373377917,0.00113578810967121,0.0661654304952165,-0.784376527778985,0.132052691407351,-0.0237961238751009,-0.233705666823708,0.0522521840124436]},{"value": 0,"weights": [-0.06211319516719,1.79147688928047,0.0826728643417246,-11.2450566009268,0.65815276898408,-7.58123915144529,-0.763317845184404,1.88609779751862]},{"value": 0,"weights": [5.97475973375378,1.48834575885705,-0.294119989594847,33.628918090917,-76.4518581149934,11.2793195134362,5.09566302943969,4.53313182549997]},{"value": 0,"weights": [-0.0450191209970353,-0.442752427656431,-0.026596927867484,-0.289886027466252,-3.88031248111837,-19.8290303297253,-0.369725780594786,0.0469652273932721]},{"value": 0,"weights": [0.00756607163571072,-12.3202216043578,-13.774987269057,0.308773864754823,-0.151153494809557,-1.7879066376506,-1.60254266855276,3.49554841417164]},{"value": 0,"weights": [-0.320322947190243,12.3821442281296,11.5630235909401,-9.27514282136479,-0.887740210109376,8.2459323848812,-28.3350458682987,-2.01742972077176]},{"value": 0,"weights": [-0.0192211219685887,-0.665892078621165,1.71509463325668,-4.61283526426122,0.866023076300721,-0.0657617725805747,-2.10287742037909,0.373112387115982]},{"value": 0,"weights": [-0.0139492202204668,0.111573816393453,-0.511062462287309,-0.285199987331514,-3.65220542599302,-9.10000245401123,0.350812141228407,0.994241569182148]},{"value": 0,"weights": [0.867082283486874,-0.650001542044966,0.287825407846668,0.0125070907397814,-1.58377326044689,-0.835974669005124,1.16704162260824,0.213973365056146]},{"value": 0,"weights": [-5.86756765460102,13.0833888466773,0.00465984559892871,-6.21135003593697,-5.65268726942806,-0.135542702926605,-0.14045251381957,-1.58745786036962]},{"value": 0,"weights": [-0.0704752087294684,-0.0209148948443418,-3.53870692271258,-7.37033421061291,-7.67933873305939e-05,-0.201993623997346,-0.997636810115506,1.15764784690507]},{"value": 0,"weights": [0.0218139645939288,-0.0413557951909553,-29.4647812740069,4.62506010322312,7.33924225544882,-17.8542570061292,0.00103145832393026,0.0184177495125754]}],"type": "RELU","inputCount": 8}]}