{"layers": [{"nodes": [{"value": 0,"weights": [-0.108468252048212,-1.05677811151702,-0.126361191962746,1.45493229105551,-0.0276926120768363,56.5341935531835,0.0409557457918257,-0.780224480530816,-0.475443412033173,1.31813688441826,1.76806927291806,-3.48964631522044,10.1549498602335,-0.00321252844072575,83.9515001945393,7.46144536814849,-13.3657576237158,-0.00261993372301749,-2.1889810301496,0.00435392955839236,-7.03062912038246,-2.56425953846488,-0.0244089922977639,-2.77230541903651]},{"value": 0,"weights": [1.19024505421239,-3.40115947426814,1.13235596931539,0.00477935899325198,-13.2313931746689,-2.31346149068022,8.86498153756706,4.30756727749609,-9.64460573126802,0.0220606818532418,-6.04794502952276,0.0813718958017756,-2.31082413301008,-15.6830634868116,0.217457846711036,-0.00698791964419824,117.989569975229,11.3622768561904,-0.239359201413495,-0.158983176001913,0.15704970047681,3.85660962799348,0.143575818354823,0.0123344053569257]},{"value": 297.888164039866,"weights": [-136.384625492564,-27.3202155111884,-2.50777132244107,-0.295804371535384,17.3716721072776,-3.63358391394416,-85.6267495385927,55.1567475666274,-0.418765846572853,-0.00178916666861976,0.0220482555907292,-1.53864292177363,0.400081066388405,-0.663054465027774,-23.9762496012182,3.72674049986173,1.26009128060018,13.0781366881311,-6.3995595771395,-0.941986485043512,-6.20328712340047,11.9901956249465,-102.915947754517,-2.06584403766284]},{"value": 0,"weights": [0.409048289461512,-3.20691165313295,-0.125307064704698,3.55127733020951,-7.00784042919654,-0.280973486000099,0.59449393076851,0.000328562463448141,0.584838512498826,0.165996993382403,3.54949935479949,7.46774059955733,-4.05114616080921,2.3457207649783,7.59576187168413,6.57842117095844,-0.867672764137426,17.3979237484486,-0.0869544688409958,-6.18519926486574,148.279351258579,-41.4003437489548,-0.466081828613651,0.0330111059846542]},{"value": 0,"weights": [-27.7119765304931,1.77836134858253,0.173075844814995,2.42480465371261,34.4261006074055,0.662136960431871,-0.0988992478148286,-1.97526362964456,0.036694581953262,-64.8139338385185,-65.3687341686158,0.423273328391071,-57.8751426780701,7.47935882905438,2.82032058471511,46.0352260400742,0.125819675699084,-0.711014654184001,9.38728290111514,147.787522224069,2.20329218727865,48.8898477576289,-6.46803138977841,4.52377991374404]},{"value": 903.155406096681,"weights": [-0.00917877142528539,0.987800012746588,-0.731415903474068,0.292147929576838,10.1815763918621,-1.17740131206415,1.10331339314765,55.3845722392443,-0.855585088944647,42.160252701708,0.107113911881917,-0.000139136187310086,-0.206250384765108,-0.713404073576856,-0.0444200925526172,-22.4035370353334,-790.362691427546,0.216969470279598,-19.1982796556737,-0.00534094861562291,0.0659998984990826,-174.954542594199,-2.98706115673574,-0.0059044645337585]},{"value": 0,"weights": [-0.485042265933871,-1.52247380528656,0.0382525365239925,-8.82279988701561,-4.29414746919767,-0.644899957347281,232.992525276395,8.99707005535303,-0.302145996568705,-0.289367934039033,0.00350257239875692,0.0510502641965797,-17.80732449913,0.0334456605905609,170.940308472777,-18.3562173435102,0.482285372886623,0.320578058616405,3.97233223476669,-77.3254914946958,0.000292552979989376,-0.00311107866924022,-1.56263682763357,-118.13072680865]},{"value": 10.4041100111603,"weights": [2.96955773316106,-17.5995071699583,16.2229222822856,-0.818921625400691,-1.07035089403017,-3.95636415536329,-12.5284115651011,0.00353134939905009,-1.69035037761669,-12.0273786208022,-0.287039773705856,-7.71113595813844,18.2819406455581,0.248453511168262,-29.3897523750239,30.679215559412,1.46659527771167,-0.00115838798810475,3.50980530056744,5.26579711750765,0.612332545765006,-1.06619113637113,-1.44624519901463,-0.0714540951817287]}],"type": "RELU","inputCount": 24},{"nodes": [{"value": 0,"weights": [0.248670476458341,0.72408457269085,2682.0387285132,0.0109092115962757,-162.466833627971,2.53850854039229,-4.95464578072301,-5.4708199492379]},{"value": 0,"weights": [-52.2829078508018,-133.357268296934,11.9890285085679,58.492359826901,149.849632275816,0.413640160844235,-0.210921070775998,13.3627126400435]},{"value": 0,"weights": [2.7898416036088,-0.844343222310114,-0.0657123987750476,18.3149973554893,-3610.23063262749,142.869817373184,-2420.65366333253,0.0140210290139717]},{"value": 5.0268212574094e-32,"weights": [-17.8748469837432,-954.937985175153,-15.9893586923966,-5.4795162604659,12.8481566286834,5.49040218932806,0.641911640234351,-11.8777800432959]},{"value": 0,"weights": [-0.00518790852073745,-610.139749131198,35563.5587695982,475719.270386844,0.069387915835335,-541.361550624156,252.502390763247,-0.515348482346781]},{"value": 1,"weights": [2.66961888669613,0.445518780827631,-0.449637007881092,0.110265622007884,-3.92997760967562,0.0112586283570596,4.82152662327097,-17.1260662780235]},{"value": 0,"weights": [-0.0742748490239704,7.97182158892957,3.63345760789555,-10.6171107249053,-16.0033774697496,43.2382373204062,16.1109818085867,77.6994575553152]},{"value": 0,"weights": [64.9581431677397,6.42435794197184,-0.00877369104113434,8.99656095871973,0.00893689549961504,613.125571082622,0.0785240923012928,6.63119048889255]}],"type": "SIGMOID","inputCount": 8},{"nodes": [{"value": 0,"weights": [2655.11350550582,5815.2131161522,14.478342651323,6544.77066851113,-1234.16904251936,-1328.01059505787,227007889093.822,4618267.31228505]}],"type": "RELU","inputCount": 8},{"nodes": [{"value": 0.5,"weights": [-2826495.91986189]},{"value": 0.5,"weights": [-151.379280197197]},{"value": 0.5,"weights": [-26755.4399791513]},{"value": 0.5,"weights": [-7.7776760733316e-05]},{"value": 0.5,"weights": [-0.0244856382240548]},{"value": 0.5,"weights": [-110331.921032951]},{"value": 0.5,"weights": [-143472.129910343]},{"value": 0.5,"weights": [-173.850212940998]}],"type": "SIGMOID","inputCount": 1},{"nodes": [{"value": 49.789938635045,"weights": [5.54660729298247,-1.42490108901837,6.41661980090028,-0.0931177195875772,-1.40272519518611,0.634726760785507,5.05494502815121e-05,89.9026168697635]},{"value": 54.1318142151797,"weights": [43.5612268216979,62.3346847645696,-2.99619840763562,-0.00939342833249195,1.42903562827472,0.919064553497515,2.78622023825874,0.238988260029085]},{"value": 58.4786312413165,"weights": [5.72779014313062,26.3636571174471,-9.20462065078482,30.2825178280248,42.6714440287416,6.90141492287826,2.18015560744136,12.034903485754]},{"value": 53.6459493848811,"weights": [-0.131787264055898,-0.500507961974754,1.61453812917078,2.01422141427749,73.7391004491165,-0.736882946913888,8.74022015898332,22.5529967911587]},{"value": 56.2732728287155,"weights": [1.37572762497959,0.310790966605498,67.7244254662321,23.5477294787545,-0.00374325161650427,14.5999692981368,0.0202063661655107,4.97143970817355]},{"value": 73.9642685215807,"weights": [-7.22704622704018,-0.00588775708140573,-16.5562457434641,153.736188467441,5.87696544175807,12.0800670025641,0.0232080860448749,0.00128777293902281]},{"value": 68.7949713652274,"weights": [-14.2047251453332,-4.41455553002315e-06,-1.18486029258959,137.830226530246,0.0306207187214213,0.698987826515333,0.00263735422265494,14.4170601532278]},{"value": 51.9794837506016,"weights": [-0.154463975919799,1.07521733950733,74.9803746297271,0.00984107005690408,-1.19121141481905,0.138087444684017,29.0805442474058,0.0205781605609225]},{"value": 12.1530792313823,"weights": [0.953123246345915,6.25306399417557,7.668445341207,0.979829890842283,3.84190721235996,0.905199610473654,-0.00856740191912515,3.71315656927943]},{"value": 0,"weights": [0.167100216868578,-0.133691794864499,-0.00808990716283647,0.0645776238423065,10.1281963609134,-7.48499461431997,-11.9766095786983,-0.0256766551364629]},{"value": 0,"weights": [-6.76296858049439,-0.223823281681335,0.00418839310509067,0.192236825943582,0.00301107048604739,-0.245987314452586,-0.00431920323948888,-0.161434125447321]},{"value": 0,"weights": [-0.578891752498966,0.527334400933749,1.38318295730837,-14.6949621659904,-0.00584847211740801,6.08295728385257,-23.71355860386,-0.141452037581676]},{"value": 0,"weights": [-0.88369373377917,0.00113578810967121,0.0661654304952165,-0.784376527778985,0.106924296556717,-0.0237961238751009,0.486021458982841,0.0681589522757124]},{"value": 0,"weights": [-0.06211319516719,1.79147688928047,0.0826728643417246,-11.2450566009268,0.65815276898408,-7.58123915144529,-0.763317845184404,0.676944804610262]},{"value": 0,"weights": [-7.69543691782746,1.48834575885705,1.05398570291731,33.628918090917,-87.4457049655628,11.2793195134362,-0.867627227949439,4.53313182549997]},{"value": 0,"weights": [-0.111244991554516,-0.990547429891625,-0.0502564193514406,-0.289886027466252,-4.97424510220485,-0.613749280433654,-0.748198621017648,0.0469652273932721]},{"value": 0,"weights": [0.00756607163571072,-12.3202216043578,-13.774987269057,0.308773864754823,0.0717489866516826,-1.7879066376506,-1.60254266855276,2.14440484459639]},{"value": 0,"weights": [0.0242222303477135,12.3821442281296,11.5630235909401,-9.27514282136479,-0.959588503220345,8.2459323848812,-28.3350458682987,-10.3855150903551]},{"value": 0,"weights": [0.0171911449378865,-0.665892078621165,1.71509463325668,-0.0317647741223009,0.866023076300721,-0.0657617725805747,-4.37782557305389,0.373112387115982]},{"value": 0,"weights": [-0.0139492202204668,0.111573816393453,-0.511062462287309,-0.285199987331514,-7.03974580680652,-9.10000245401123,-0.761754938786718,-3.74647844692273]},{"value": 0,"weights": [1.48715490112188,-0.0187138140557199,0.215046195885864,0.0125070907397814,-4.69873327073684,-0.835974669005124,1.16704162260824,0.213973365056146]},{"value": 0,"weights": [-5.86756765460102,13.0833888466773,-2.89438547628987e-05,-17.8212394404107,-10.697040589575,-0.135542702926605,-0.14045251381957,-1.58745786036962]},{"value": 0,"weights": [-0.0211178791002344,-0.0209148948443418,-3.53870692271258,-7.37033421061291,-5.15796266992433e-05,-0.273180485559119,3.08963587419675,1.15764784690507]},{"value": 0,"weights": [0.0218139645939288,-0.0413557951909553,-84.9000220575727,4.62506010322312,7.33924225544882,-17.8542570061292,-0.00680026463047053,0.0184177495125754]}],"type": "RELU","inputCount": 8}]}