{"layers": [{"nodes": [{"value": 5.86938117032851,"weights": [0.714031450897592,-1.05677811151702,-0.126361191962746,-1.99323202438531,-0.0825231159203564,56.5341935531835,0.0409557457918257,-2.1773644273884,-1.40149624016743,1.31813688441826,1.76806927291806,-3.48964631522044,-10.7850415162168,-0.00321252844072575,-66.9783001700185,21.2457925578862,-7.54722441911843,0.00172631013547092,8.48357300854229,0.00435392955839236,-7.03062912038246,5.80304950895932,0.00024231714088113,0.888303470978378]},{"value": 0,"weights": [-1.6087526480758,-2.74987977571512,-1.647518669221,0.00477935899325198,-13.2313931746689,-2.31346149068022,0.897055782017814,4.30756727749609,-9.64460573126802,0.0220606818532418,-6.04794502952276,-0.0296376929527985,-2.31082413301008,-15.6830634868116,0.217457846711036,-0.00698791964419824,117.989569975229,11.3622768561904,0.491426845885625,-0.158983176001913,0.407864213109425,-10.6152032185276,0.140958307268607,0.0331234691969479]},{"value": 893.061651139615,"weights": [-136.384625492564,-51.6817426293256,-2.50777132244107,-0.565418091504898,17.3716721072776,6.40949810257686,1.71252998892774,55.1567475666274,1.01509054131605,0.00037816689420693,0.0990347824228101,-4.4743815892974,0.400081066388405,1.1305460726922,-14.606838787159,13.5480045385938,1.26009128060018,13.0781366881311,-6.3995595771395,-0.941986485043512,-16.3274987802766,-19.4177381987501,-748.870057050899,-2.06584403766284]},{"value": 0,"weights": [0.409048289461512,-3.20691165313295,-0.125307064704698,-1.78299760378309,-14.7774707851755,-0.602317159859246,0.59449393076851,-0.000116267235115896,3.32024168036142,0.165996993382403,3.54949935479949,-0.298973389255318,-4.05114616080921,-2.32244068790198,7.59576187168413,32.1443275792972,-0.867672764137426,23.6466710533743,0.491228329707151,-6.02299157434585,34.5742808597928,-41.4003437489548,1.86417899638813,0.0330111059846542]},{"value": 0,"weights": [1.42850397254356,-0.773784381359361,0.322621065372894,2.42480465371261,34.4261006074055,0.662136960431871,0.227532888246217,-1.97526362964456,-0.0536773566295663,-34.6980002928255,-90.0371133271202,0.423273328391071,-70.3334964379214,7.47935882905438,0.828208129262971,46.0352260400742,-0.219561325948102,0.207801599022642,9.38728290111514,385.978554981428,2.20329218727865,48.8898477576289,-6.46803138977841,-5.73989910049659]},{"value": 585.458728423077,"weights": [-0.00917877142528539,0.987800012746588,1.80191679137681,0.292147929576838,10.1815763918621,-8.78336007681675,-1.8566633321335,-81.1188982692955,-0.855585088944647,92.118273884424,0.29065853809055,-4.04476100978801e-05,-0.206250384765108,1.17057742024887,-0.0695095887926678,-22.4035370353334,-790.362691427546,0.216969470279598,-19.1982796556737,-0.020316919099818,-0.155122666524917,235.513750423548,-2.98706115673574,-0.0059044645337585]},{"value": 0,"weights": [0.612686666611999,8.69555032036435,0.169215079802214,-8.82279988701561,-9.85459860352318,-1.09193649361545,232.992525276395,8.99707005535303,-0.302145996568705,0.227400579607309,0.00350257239875692,0.0510502641965797,38.7511344493773,-0.0152910235393853,515.298101180213,-5.59053788233869,-0.945062040853688,-0.13717844244063,4.36687818560089,85.5206736330965,0.000767592345094316,0.00896198108608961,-2.30785078831704,447.51457619467]},{"value": 28.549310621953,"weights": [2.96955773316106,-17.5995071699583,16.2229222822856,-0.818921625400691,-0.603664413517153,-3.95636415536329,-19.0379953452671,-6.4836221299875e-05,-1.69035037761669,-12.0273786208022,0.948249861213689,15.7815841821005,-29.6781449898958,0.0134048595683761,-6.59435821209435,30.679215559412,1.46659527771167,-0.00115838798810475,3.50980530056744,-0.788204344370039,0.753337074767458,2.481775024315,-10.5547387098974,-0.0249065886634496]}],"type": "RELU","inputCount": 24},{"nodes": [{"value": 1,"weights": [-0.188434670048952,0.214460297054168,-518.467651683525,0.00449858181926774,-377.330567205248,4.40967712360962,-10.1170014238488,4.77595484358587]},{"value": 1,"weights": [-106.147580749539,346.358711436806,-0.948381494698999,-50.8221023511138,149.849632275816,-0.929013790944218,-0.161213661479257,-0.64785801366769]},{"value": 0,"weights": [7.03150601551341,0.75625452703754,-0.335043008921148,-47.6850908379309,9883.56496983656,72.6199281155553,6910.48433008353,-0.00957150222179722]},{"value": 1,"weights": [-23.8471103551192,-954.937985175153,-126.321256441297,-27.9702054155285,0.908233418916189,13.5618258145497,-0.903433663279837,-1.91045017578636]},{"value": 1,"weights": [0.0504520959211815,-661.669707312692,-135687.161002103,932685.334080346,0.00532916813103301,-541.361550624156,71.6565019110234,1.30596017194885]},{"value": 1,"weights": [-14.3123954788537,0.711707941759766,1.00827667465101,-0.0887113694942892,-6.80707900205823,0.0112586283570596,12.4654988256337,-54.2132342086149]},{"value": 0,"weights": [-1.9250415265026,16.2476366417131,11.4539094575253,11.4396841681368,17.5940712904901,43.2382373204062,26.2821320304311,4.63810128981522]},{"value": 1,"weights": [64.9581431677397,18.2103008799369,-0.0188365353303705,-5.60237581378228,0.013343580907589,-1412.24599764306,0.0785240923012928,0.921053029299077]}],"type": "SIGMOID","inputCount": 8},{"nodes": [{"value": 10656.6108039424,"weights": [2374.15590671841,132.003667182427,-493.041737023692,10129.0879438188,-1234.16904251936,-1466.37080274154,-112127797676.245,721.903131483615]}],"type": "RELU","inputCount": 8},{"nodes": [{"value": 1,"weights": [-4800292564.06015]},{"value": 1,"weights": [-1280.0198046085]},{"value": 1,"weights": [-429677.215967469]},{"value": 0.707764038987812,"weights": [-8.30047948213449e-05]},{"value": 1,"weights": [-0.0425373826192654]},{"value": 1,"weights": [-1843424.21593591]},{"value": 1,"weights": [-375479.053743224]},{"value": 1,"weights": [-38.8099718826123]}],"type": "SIGMOID","inputCount": 1},{"nodes": [{"value": 106.442246245536,"weights": [5.54660729298247,-1.42490108901837,13.3644478883156,0.0818270728748228,-1.14868652608637,0.144256898470789,-9.34848853054634e-06,89.9026168697635]},{"value": 108.277458223615,"weights": [43.5612268216979,62.3346847645696,-2.99619840763562,0.00626814118687161,1.42903562827472,0.919064553497515,2.78622023825874,0.238988260029085]},{"value": 109.293053341871,"weights": [5.72779014313062,26.3636571174471,-9.20462065078482,30.2825178280248,42.6714440287416,6.90141492287826,-1.59652163802361,16.9970122897985]},{"value": 106.569991657266,"weights": [-0.265066445859388,-0.500507961974754,1.61453812917078,2.01422141427749,73.7391004491165,-0.736882946913888,8.74022015898332,22.5529967911587]},{"value": 106.871195465107,"weights": [1.37572762497959,0.310790966605498,67.7244254662321,25.2886778654021,-0.00374325161650427,14.5999692981368,-0.00583113408305526,4.97143970817355]},{"value": 104.838151714627,"weights": [-7.22704622704018,-0.00588775708140573,-16.5562457434641,153.736188467441,5.87696544175807,13.9617842798178,-0.020744925864703,0.000380958193660799]},{"value": 97.3321818972954,"weights": [-14.2047251453332,-2.58213324460795e-06,-1.18486029258959,137.830226530246,0.051806759733605,0.698987826515333,0.00263735422265494,14.4170601532278]},{"value": 104.066267114897,"weights": [0.0183818251924341,1.26328422978132,74.9803746297271,-0.00172441445649307,-1.45922180165123,0.138087444684017,29.0805442474058,0.0460370182978161]},{"value": 77.6342035192032,"weights": [1.225393101903,8.61699427455897,44.0059964988421,1.78319296176217,8.29903860691219,0.905199610473654,-0.0203155100810938,13.3398170836829]},{"value": 0,"weights": [0.167100216868578,-0.133691794864499,-0.00808990716283647,-0.173294842580019,-68.0487796335947,-7.48499461431997,-25.3803708021175,-0.0256766551364629]},{"value": 0,"weights": [-6.76296858049439,-0.223823281681335,0.00418839310509067,0.192236825943582,0.00830362392851998,-0.245987314452586,-0.00431920323948888,-0.161434125447321]},{"value": 0,"weights": [-1.16869865749825,-0.414738028324071,-0.975451055717578,-14.6949621659904,0.00786757619039131,-29.270454363908,-23.71355860386,-0.141452037581676]},{"value": 0,"weights": [-0.88369373377917,0.00113578810967121,-0.0158372115301332,-0.784376527778985,0.106924296556717,-0.0237961238751009,-1.57099539620669,0.0681589522757124]},{"value": 0,"weights": [-0.353885079325433,1.79147688928047,0.0826728643417246,-11.2450566009268,0.65815276898408,-7.58123915144529,-0.763317845184404,0.676944804610262]},{"value": 0,"weights": [8.58167387712756,1.48834575885705,1.05398570291731,33.628918090917,-87.4457049655628,11.2793195134362,-0.867627227949439,10.4903172687521]},{"value": 0,"weights": [-0.111244991554516,-0.990547429891625,-0.00891645361749635,-0.289886027466252,-14.593845668641,-0.613749280433654,-0.748198621017648,0.0322430815553415]},{"value": 0,"weights": [0.00756607163571072,-12.3202216043578,-13.774987269057,0.308773864754823,0.0717489866516826,2.82625658494865,-1.60254266855276,1.9342344331036]},{"value": 0,"weights": [0.0283695581426954,12.3821442281296,11.5630235909401,-9.27514282136479,6.90832321756983,-11.3307458885379,-28.3350458682987,-10.3855150903551]},{"value": 0,"weights": [0.0171911449378865,-0.665892078621165,3.36082825036739,-0.0359933525657205,0.866023076300721,-0.395166341099264,-5.19405709232087,-0.1248315399238]},{"value": 0,"weights": [0.0239575546596001,0.0836293994686686,-0.511062462287309,-0.178978490746516,-7.03974580680652,1.62802458845848,-0.761754938786718,1.47080904513667]},{"value": 0,"weights": [1.48715490112188,-0.0268193202255876,-0.206010730503842,0.00980490875117236,-4.69873327073684,-0.835974669005124,1.16704162260824,0.213973365056146]},{"value": 0,"weights": [-5.86756765460102,13.0833888466773,6.04234296471697e-05,-27.2434106917,8.2742214142919,-0.135542702926605,-0.14045251381957,-1.58745786036962]},{"value": 0,"weights": [-0.0211178791002344,0.0557626703993625,-3.53870692271258,-7.37033421061291,1.062702109633e-05,-0.739987155150166,3.08963587419675,1.41280829221127]},{"value": 0,"weights": [0.0218139645939288,-0.0413557951909553,-84.9000220575727,4.62506010322312,-0.157227698627463,-17.8542570061292,-0.0201629337482375,0.0184177495125754]}],"type": "RELU","inputCount": 8}]}