{
    "layers": [
        {
            "nodes": [
                {
                    "weights": [
                        0.005827384490045426
                    ],
                    "value": 0.0029542460393526646
                },
                {
                    "weights": [
                        -0.0023330180045390966
                    ],
                    "value": 0.9113865459253397
                },
                {
                    "weights": [
                        -0.0031279629837502616
                    ],
                    "value": 0.9579055354661925
                },
                {
                    "weights": [
                        -8.09333793039078
                    ],
                    "value": 1
                },
                {
                    "weights": [
                        0.010339826017893374
                    ],
                    "value": 0.00003265502205310113
                },
                {
                    "weights": [
                        0.0340394608195992
                    ],
                    "value": 1.7046808525684287e-15
                },
                {
                    "weights": [
                        -3.667488057987465
                    ],
                    "value": 1
                },
                {
                    "weights": [
                        0.023294872197380138
                    ],
                    "value": 7.821484351881477e-11
                }
            ],
            "inputCount": 1,
            "type": 2
        },
        {
            "nodes": [
                {
                    "weights": [
                        1.7913794944459334,
                        -0.2893513453834941,
                        -0.32769982096845973,
                        -3.028790919733058,
                        -1.2799533738576048,
                        8.752466823417482,
                        -0.46480323162129905,
                        5.139169781819215
                    ],
                    "value": 0.9831424837647361
                },
                {
                    "weights": [
                        0.24639051454008426,
                        0.9784352061210537,
                        3.881800706783919,
                        -0.5872741060832954,
                        -8.446567174517773,
                        -272.6951598188245,
                        -3.1081059626136534,
                        -31.551235238916348
                    ],
                    "value": 0.28593643459291435
                },
                {
                    "weights": [
                        -114.42823796067493,
                        0.9738207872195613,
                        6.086218577755079,
                        0.12472105310367443,
                        -841.7174209405721,
                        -561.500558513258,
                        -5.869581610436862,
                        -3905.085877521336
                    ],
                    "value": 0.352708935798633
                },
                {
                    "weights": [
                        0.28614741053970383,
                        1.2615739397253065,
                        0.6214754027973526,
                        0.16694028668287186,
                        0.6090556961752641,
                        -50.44051995115528,
                        -2.1853169010895854,
                        -5.4856922514576905
                    ],
                    "value": 0.567685675131815
                },
                {
                    "weights": [
                        0.5386602324635655,
                        0.9858681543168977,
                        0.6716683549713751,
                        -0.3527247437608105,
                        3.8232072938068264,
                        -20.802481100532596,
                        -2.450543336010669,
                        4.459520887622817
                    ],
                    "value": 0.7789657210428925
                },
                {
                    "weights": [
                        1.9628733543552876,
                        -1.9663345436012833,
                        -1.0637043545868987,
                        1.7723046895424313,
                        -0.006345625619855102,
                        8.046164612410298,
                        0.06372256597226475,
                        8.80104025121072
                    ],
                    "value": 0.7249585416672315
                },
                {
                    "weights": [
                        4.166932124616968,
                        -0.6702293465822782,
                        -1.0022285579220171,
                        0.8091933871139847,
                        50.38208686903307,
                        -13.019929725208144,
                        0.36702984023015434,
                        -27.316676793575766
                    ],
                    "value": 0.5940417883774964
                },
                {
                    "weights": [
                        -1.9115324795349218,
                        0.6972023043968794,
                        -0.269310877691026,
                        -0.5976419873017329,
                        -3.750344745768177,
                        -13.157433006210375,
                        0.9833396732744635,
                        4.04770391993008
                    ],
                    "value": 0.3192166723973454
                }
            ],
            "inputCount": 8,
            "type": 2
        },
        {
            "nodes": [
                {
                    "weights": [
                        -0.24461133309904562,
                        0.8566874134681979,
                        -0.36998914970674524,
                        -0.02709997548296247,
                        -0.40562723867643546,
                        0.8526096759608929,
                        2.073582840890553,
                        -0.504510335869515
                    ],
                    "value": 0.22592416151355052
                },
                {
                    "weights": [
                        0.864346488761205,
                        44.44350862356893,
                        -0.06675162720552379,
                        -54.98183331164677,
                        -10.211091709700671,
                        1.4109542678286449,
                        27.512736426673374,
                        -0.4939761439867821
                    ],
                    "value": 0.9997803642885562
                },
                {
                    "weights": [
                        -0.32820056411327597,
                        1.9172152374195117,
                        0.013842844372199003,
                        0.25850069948027615,
                        0.9347164723666463,
                        -0.7658147261647749,
                        -0.3523415156042087,
                        0.13920579945354034
                    ],
                    "value": 0.4048679032206307
                },
                {
                    "weights": [
                        0.13389510228407728,
                        2.4031393664184204,
                        -1.0901490165756296,
                        0.275068718687623,
                        0.8211363811080103,
                        -0.09258627405981769,
                        -0.7054444041449204,
                        0.8488231741217361
                    ],
                    "value": 0.2660336083875483
                },
                {
                    "weights": [
                        1.9083045418907583,
                        -0.060879589995661024,
                        -0.5217391741586502,
                        -0.7430312815201108,
                        -0.6271442229937476,
                        -0.36613612827991643,
                        1.0472975012826689,
                        -1.0379184558604866
                    ],
                    "value": 0.3122208488603719
                },
                {
                    "weights": [
                        1.276424066423838,
                        0.015255003090313192,
                        -0.5998688286852709,
                        3.3579252463124685,
                        0.6944033109539254,
                        -2.2892456234233984,
                        3.616627796932897,
                        0.21790520101127708
                    ],
                    "value": 0.01706978556138942
                },
                {
                    "weights": [
                        -1.3149645518900612,
                        0.4895203573023455,
                        1.0890788572664294,
                        -0.5913956142731098,
                        0.4736379398028743,
                        -0.7986428986618723,
                        -0.4446816866180555,
                        2.5837310967672975
                    ],
                    "value": 0.6800168001117423
                },
                {
                    "weights": [
                        0.3111367369722762,
                        1.235485477267825,
                        0.8194869033112677,
                        1.588737285063469,
                        0.5139844899652012,
                        -1.201274325049171,
                        -3.721743252607765,
                        1.1218458490749508
                    ],
                    "value": 0.6161292311638837
                }
            ],
            "inputCount": 8,
            "type": 2
        },
        {
            "nodes": [
                {
                    "weights": [
                        0.14152530184335077,
                        0.31510243235462876,
                        -0.6472202298089066,
                        -0.35102987040194755,
                        0.8054218212427906,
                        -4.907155364958946,
                        -1.0645546811340953,
                        -1.596707881102457
                    ],
                    "value": 0.8246831380704553
                },
                {
                    "weights": [
                        0.9163391301834046,
                        -2.1944268575505332,
                        -0.01772784903703456,
                        -3.982509247976242,
                        3.002428499598287,
                        -17.057114326877,
                        -1.1962541512109726,
                        -0.0000013797381726549395
                    ],
                    "value": 0.9616092851042126
                },
                {
                    "weights": [
                        -0.12611896185271992,
                        0.20334702742205307,
                        -0.43177549332088333,
                        0.22543213542207552,
                        0.8365222298342363,
                        -25.594932082579504,
                        0.37380195152902573,
                        -2.355144331189334
                    ],
                    "value": 0.7879531791369707
                },
                {
                    "weights": [
                        0.9449572044277921,
                        0.1613157726419161,
                        -0.4231728716540055,
                        -0.9627255440504899,
                        0.6732913576175936,
                        0.32522945775829726,
                        -0.9167285533255494,
                        -0.7394368949555217
                    ],
                    "value": 0.7142037513829839
                },
                {
                    "weights": [
                        2.8443930011314773,
                        0.12048870304379349,
                        -1.0339837934441056,
                        0.8251888451042917,
                        0.510889025278172,
                        -6.834606710618392,
                        -0.40154042676393564,
                        -2.710869390845421
                    ],
                    "value": 0.7919094639544452
                },
                {
                    "weights": [
                        -0.37081310849030164,
                        2.1019079017390148,
                        3.3249787702305813,
                        0.1365898257792817,
                        -0.1684999783572556,
                        5.441212615518299,
                        -1.2989034436644569,
                        0.7228859592919742
                    ],
                    "value": 0.047309931706655706
                },
                {
                    "weights": [
                        -0.12637670273884924,
                        0.9770973749509606,
                        0.2578554274906728,
                        2.030013125816609,
                        -0.3927473583760262,
                        5.912330754946773,
                        0.288995896958058,
                        0.768608562616279
                    ],
                    "value": 0.09611459704649357
                },
                {
                    "weights": [
                        -6.64352943552318,
                        -0.6694097733406661,
                        0.020632041490964828,
                        0.9993802354397708,
                        0.863232308431489,
                        -8.268864899282741,
                        -0.9884121666204858,
                        19.681090156638152
                    ],
                    "value": 0.00006212199362650831
                }
            ],
            "inputCount": 8,
            "type": 2
        },
        {
            "nodes": [
                {
                    "weights": [
                        3.531583932286464,
                        0.9554740648343684,
                        2.6395016545238943,
                        34.1110322938231,
                        2.5975481868954646,
                        -20.32665158259016,
                        -9.585374847155185,
                        2.67401079156369
                    ],
                    "value": 30.447503567862494
                }
            ],
            "inputCount": 8,
            "type": 1
        }
    ]
}