{"layers": [{"nodes": [{"value": 109.681950384224791,"weights": [0.0219407782324914577]},{"value": 0,"weights": [-1.35442616657069559]},{"value": 0,"weights": [-6.24711661908265725]},{"value": 0,"weights": [-11.4263335815539]}],"type": "RELU","inputCount": 1},{"nodes": [{"value": 4.05395812904437694e-43,"weights": [0.889950722026684571,0.555123037343293602,-0.0454441723532410038,-0.728398970413181912]},{"value": 0.999967452106439447,"weights": [-0.0942066791401386244,-2.58054321963213296,-10.1845357046300293,0.232521762097258944]},{"value": 0,"weights": [37.1776905908119133,4.3892772685582937,-0.250175232514326773,0.036204179291137735]},{"value": 1.47508290881612e-19,"weights": [0.395328780933645429,-1.77903121005871245,0.0670004131327991831,1.55553345928844244]}],"type": "SIGMOID","inputCount": 4},{"nodes": [{"value": 2.47462175578996035,"weights": [1.73961550179888391,2.47470230213708442,-1.80979465519433136,0.020186024856306415]},{"value": 0.106200529396167406,"weights": [1.37348491552562835,0.106203986112203094,-0.803256448543252066,0.260003832216291419]},{"value": 0,"weights": [0.00734096662236553,-0.864638158294043446,0.819902870871356826,0.610569364748734689]},{"value": 0,"weights": [0.394214115247096542,-6.05658772943991,-7.03393520197050481,-1.91739673107737674]}],"type": "RELU","inputCount": 4},{"nodes": [{"value": 0.999999675184932491,"weights": [0.994573028144173588,-163.852399947994968,16.9357535971407387,0.0179645833110017097]},{"value": 0.519778978340436293,"weights": [-0.0620961136888438653,0.701570144788667527,-1.89653860646461236,17.5221581943925742]},{"value": 0.0229344351836372612,"weights": [1.54000705208629518,-0.555723917553517,2.92501840260105217,-1.03426393442457121]},{"value": 0.656591865799800556,"weights": [-0.161573206595121033,-2.33813189436792745,2.08678187292527495,-0.0122312316468001728]}],"type": "SIGMOID","inputCount": 4},{"nodes": [{"value": 4279.92969487535174,"weights": [-151.879864311588534,1868.13963687586397,-204808.05114617449,12424.6844912755587]}],"type": "RELU","inputCount": 4}]}