{
  "layers": [
    {
      "nodes": [
        {
          "weights": [
            -13.35536332483716
          ],
          "value": 1
        },
        {
          "weights": [
            0.00027055382267529625
          ],
          "value": 0.2054623365948254
        },
        {
          "weights": [
            0.0063739804942232236
          ],
          "value": 1.4516259084271924e-14
        },
        {
          "weights": [
            -0.0009563785033112344
          ],
          "value": 0.9916816062922326
        },
        {
          "weights": [
            250.5470620022658
          ],
          "value": 0
        },
        {
          "weights": [
            -583.405940699385
          ],
          "value": 1
        },
        {
          "weights": [
            -597.8873906667493
          ],
          "value": 1
        },
        {
          "weights": [
            -0.40823552406674996
          ],
          "value": 1
        }
      ],
      "inputCount": 1,
      "type": "SIGMOID"
    },
    {
      "nodes": [
        {
          "weights": [
            -0.7842841581064491,
            -1.6813504830050878,
            1.5905354055804846,
            -0.5189265209715122,
            0.10242805083905417,
            0.7801048060747391,
            0.29661361640253425,
            4.6578697034263286
          ],
          "value": 0.016459805425970333
        },
        {
          "weights": [
            0.9975545447245235,
            0.4855386139997949,
            1.6330616223234953,
            -0.39571078694288253,
            0.07974863346767869,
            0.6252383706801687,
            0.18368785952870254,
            0.04281593254528854
          ],
          "value": 0.17412982451550713
        },
        {
          "weights": [
            -4.001013932850732,
            8.757319783733754,
            0.23730430275810926,
            0.05617865394062579,
            0.31626031458962156,
            0.28754398858112706,
            0.3881764331165322,
            0.6806517536699483
          ],
          "value": 0.6877519870097426
        },
        {
          "weights": [
            -0.9309439044812311,
            6.373767095756426,
            69.29964360215038,
            -0.4367382691974671,
            -0.8422251438815221,
            7.111207434632876,
            -2.141148456518214,
            -1.2156300509687719
          ],
          "value": 0.02412828567113937
        },
        {
          "weights": [
            -0.1661929594922499,
            -1.9582542863638628,
            -0.6839710618171705,
            0.8037017625891766,
            -1.7143407349206603,
            1.0609101355998003,
            -0.1765424012672131,
            0.4609473109627076
          ],
          "value": 0.17167679946505288
        },
        {
          "weights": [
            0.7612389957370639,
            -1.085961343825754,
            2.8401196477760764,
            -0.5127952539635307,
            0.4968673774961272,
            0.05796812309940385,
            2.4154464365704755,
            2.225026932585296
          ],
          "value": 0.008766404039554632
        },
        {
          "weights": [
            2.343026864646597,
            0.2000184064281476,
            0.052956140406141536,
            0.3329461295832622,
            1.4733334594265552,
            -1.7700583360032165,
            -0.4649402630551527,
            0.5110635593350373
          ],
          "value": 0.27084019463302905
        },
        {
          "weights": [
            0.24763225984100357,
            0.025303042023115573,
            0.2721434066931259,
            0.1125676167238262,
            -0.18653672366906632,
            0.41409272808298203,
            0.18064648481246248,
            0.24532685076039593
          ],
          "value": 0.2306707662983316
        }
      ],
      "inputCount": 8,
      "type": "SIGMOID"
    },
    {
      "nodes": [
        {
          "weights": [
            2.7806595253150754,
            -0.5337864170101634,
            -0.34219239557601133,
            -4.52568174176057,
            -0.3232427076362394,
            3.7228618419560715,
            -0.18811686830974728,
            -0.12590759997171283
          ],
          "value": 0.6211822042088087
        },
        {
          "weights": [
            1.169133675420665,
            0.8125325152794626,
            1.8621317756974076,
            3.0217205720653033,
            0.05749744942199092,
            0.7235899971944229,
            3.237968079018913,
            -0.1637335023303238
          ],
          "value": 0.08550949507039565
        },
        {
          "weights": [
            1.0150098945872417,
            2.4639942274088806,
            0.3378180274586145,
            4.786104252869206,
            -0.23776354835813018,
            -4.168813219543666,
            -2.3796481581343603,
            -0.4905406931470756
          ],
          "value": 0.5103596341915633
        },
        {
          "weights": [
            -0.30349287698738947,
            -0.38938458833310347,
            3.493253288852621,
            1.4771921589461086,
            -0.6156634358942072,
            -0.5491324623597929,
            -0.6920900670117325,
            0.9731135155027908
          ],
          "value": 0.09180039809327172
        },
        {
          "weights": [
            -0.6024706526619301,
            1.0484133369472348,
            0.15582555093173817,
            1.365260568551582,
            -0.12107904288729367,
            -0.8789853827246111,
            -0.14954658712901123,
            0.4651294758839773
          ],
          "value": 0.41312769686329737
        },
        {
          "weights": [
            0.8677939918321765,
            0.1584168332774068,
            -1.675587615211481,
            -1.6410733943787086,
            4.9831131260339045,
            0.6361989977384975,
            1.4372600183328794,
            -0.25813620805338106
          ],
          "value": 0.48983410481173695
        },
        {
          "weights": [
            0.2720929815005666,
            0.4932526339966363,
            -0.2661257401059237,
            -1.4607565539399996,
            0.689492556380615,
            0.5107667208399279,
            8.971184380538249,
            -2.0844866662744583
          ],
          "value": 0.1252235446910233
        },
        {
          "weights": [
            -0.1990999323849696,
            2.581382459909272,
            -2.9218196798027263,
            -2.0958799140329165,
            -0.005850609038802987,
            12.264256319197816,
            0.8260307492942555,
            -0.5691252359780111
          ],
          "value": 0.8045356096929803
        }
      ],
      "inputCount": 8,
      "type": "SIGMOID"
    },
    {
      "nodes": [
        {
          "weights": [
            -0.03520985683308866,
            1.507389615163932,
            0.4334377388355155,
            0.7046577934997146,
            -0.5829186370868757,
            -1.6494887687134077,
            -1.121643341346074,
            -0.3940463586048365
          ],
          "value": 0.7527538795823925
        },
        {
          "weights": [
            0.7931505364895374,
            -4.766274897707693,
            2.175582874131381,
            -24.228948008220627,
            -6.883501821255791,
            6.222405923097981,
            5.390452064753856,
            0.9217451050981907
          ],
          "value": 0.35617583992056184
        },
        {
          "weights": [
            -0.6738538712394647,
            0.2786856449227161,
            0.5462766017907175,
            2.2721302301353434,
            0.8979732521340676,
            0.05776773216706261,
            -0.25450187097987864,
            -0.2927342198578943
          ],
          "value": 0.4441061946607015
        },
        {
          "weights": [
            -0.5094895170057699,
            -0.0020015789419782887,
            2.259097990532937,
            0.7800237770102739,
            -0.28133601366541466,
            -2.2263261787827995,
            0.1993349058534592,
            -0.6625189327254569
          ],
          "value": 0.6914515826337456
        },
        {
          "weights": [
            -1.9377627660404932,
            -0.000002033261610213132,
            1.0711672000879122,
            2.2883565378980846,
            0.8447646686466673,
            -1.4111073447911517,
            2.5232639493329323,
            -0.5943178292633201
          ],
          "value": 0.721384856509781
        },
        {
          "weights": [
            -0.056205070461206624,
            -0.10864850989994874,
            1.228256649573059,
            1.0147844844039475,
            1.856734225346008,
            -2.4869005635032893,
            1.1848058669317607,
            -0.39825307384605424
          ],
          "value": 0.486837400998595
        },
        {
          "weights": [
            -1.5275061646700698,
            -0.3070220772497876,
            -0.18009336662632647,
            -0.8028675478373019,
            -0.15450761069064786,
            2.077951726869616,
            0.06431224151338708,
            0.25092680343990814
          ],
          "value": 0.4941941868761395
        },
        {
          "weights": [
            -0.7306313615530843,
            -0.6339142277497494,
            -0.9237019242903963,
            0.18743717749225272,
            -4.899686518179301,
            -1.401225749405619,
            78.58289514362461,
            -0.6112004631888974
          ],
          "value": 0.003416032169243551
        }
      ],
      "inputCount": 8,
      "type": "SIGMOID"
    },
    {
      "nodes": [
        {
          "weights": [
            29.557476828909305,
            -0.8876243562600262,
            63.67406099084184,
            14.310085255927863,
            4.505452700250344,
            22.26203544573745,
            -7.50129160976224,
            -321.0059741078588
          ],
          "value": 69.39062641141867
        }
      ],
      "inputCount": 8,
      "type": "RELU"
    }
  ]
}