{"layers":[{"nodes":[{"weights":[-13.35536332483716],"value":1},{"weights":[0.00027055382267529625],"value":0.20546233659482541},{"weights":[0.0063739804942232236],"value":1.4516259084271924e-014},{"weights":[-0.0009563785033112344],"value":0.99168160629223256},{"weights":[250.54706200226579],"value":0},{"weights":[-583.405940699385],"value":1},{"weights":[-597.8873906667493],"value":1},{"weights":[-0.40823552406674996],"value":1}],"inputCount":1,"type":2},{"nodes":[{"weights":[-0.78428415810644914,-1.6813504830050878,1.5905354055804846,-0.51892652097151215,0.10242805083905417,0.78010480607473909,0.29661361640253425,4.6578697034263286],"value":0.016459805425970333},{"weights":[0.99755454472452354,0.48553861399979492,1.6330616223234953,-0.39571078694288253,0.079748633467678687,0.62523837068016874,0.18368785952870254,0.042815932545288538],"value":0.17412982451550713},{"weights":[-4.0010139328507321,8.7573197837337542,0.23730430275810926,0.056178653940625788,0.31626031458962156,0.28754398858112706,0.38817643311653222,0.68065175366994835],"value":0.6877519870097426},{"weights":[-0.9309439044812311,6.3737670957564259,69.299643602150383,-0.43673826919746711,-0.84222514388152214,7.1112074346328757,-2.1411484565182142,-1.2156300509687719],"value":0.024128285671139369},{"weights":[-0.16619295949224991,-1.9582542863638628,-0.68397106181717049,0.80370176258917658,-1.7143407349206603,1.0609101355998003,-0.1765424012672131,0.46094731096270758],"value":0.17167679946505288},{"weights":[0.76123899573706388,-1.085961343825754,2.8401196477760764,-0.51279525396353065,0.49686737749612719,0.05796812309940385,2.4154464365704755,2.2250269325852958],"value":0.0087664040395546323},{"weights":[2.343026864646597,0.20001840642814761,0.052956140406141536,0.3329461295832622,1.4733334594265552,-1.7700583360032165,-0.46494026305515268,0.51106355933503733],"value":0.27084019463302905},{"weights":[0.24763225984100357,0.025303042023115573,0.27214340669312592,0.1125676167238262,-0.18653672366906632,0.41409272808298203,0.18064648481246248,0.24532685076039593],"value":0.23067076629833161}],"inputCount":8,"type":2},{"nodes":[{"weights":[2.7806595253150754,-0.53378641701016338,-0.34219239557601133,-4.52568174176057,-0.32324270763623941,3.7228618419560715,-0.18811686830974728,-0.12590759997171283],"value":0.62118220420880865},{"weights":[1.1691336754206649,0.81253251527946257,1.8621317756974076,3.0217205720653033,0.05749744942199092,0.72358999719442285,3.2379680790189131,-0.1637335023303238],"value":0.085509495070395652},{"weights":[1.0150098945872417,2.4639942274088806,0.3378180274586145,4.7861042528692064,-0.23776354835813018,-4.168813219543666,-2.3796481581343603,-0.4905406931470756],"value":0.51035963419156327},{"weights":[-0.30349287698738947,-0.38938458833310347,3.4932532888526211,1.4771921589461086,-0.61566343589420724,-0.54913246235979285,-0.69209006701173248,0.97311351550279079],"value":0.091800398093271715},{"weights":[-0.60247065266193012,1.0484133369472348,0.15582555093173817,1.365260568551582,-0.12107904288729367,-0.87898538272461113,-0.14954658712901123,0.46512947588397729],"value":0.41312769686329737},{"weights":[0.86779399183217654,0.1584168332774068,-1.675587615211481,-1.6410733943787086,4.9831131260339045,0.63619899773849753,1.4372600183328794,-0.25813620805338106],"value":0.48983410481173695},{"weights":[0.2720929815005666,0.49325263399663632,-0.26612574010592371,-1.4607565539399996,0.689492556380615,0.51076672083992791,8.971184380538249,-2.0844866662744583],"value":0.12522354469102329},{"weights":[-0.19909993238496959,2.5813824599092721,-2.9218196798027263,-2.0958799140329165,-0.0058506090388029874,12.264256319197816,0.82603074929425546,-0.56912523597801112],"value":0.80453560969298032}],"inputCount":8,"type":2},{"nodes":[{"weights":[-0.035209856833088658,1.5073896151639321,0.43343773883551551,0.70465779349971458,-0.58291863708687575,-1.6494887687134077,-1.121643341346074,-0.3940463586048365],"value":0.75275387958239248},{"weights":[0.79315053648953737,-4.7662748977076932,2.175582874131381,-24.228948008220627,-6.8835018212557912,6.2224059230979814,5.3904520647538563,0.92174510509819074],"value":0.35617583992056184},{"weights":[-0.67385387123946472,0.27868564492271608,0.54627660179071746,2.2721302301353434,0.89797325213406765,0.057767732167062609,-0.25450187097987864,-0.29273421985789427],"value":0.4441061946607015},{"weights":[-0.50948951700576994,-0.0020015789419782887,2.2590979905329371,0.78002377701027392,-0.28133601366541466,-2.2263261787827995,0.1993349058534592,-0.66251893272545692],"value":0.69145158263374562},{"weights":[-1.9377627660404932,-2.0332616102131321e-006,1.0711672000879122,2.2883565378980846,0.84476466864666733,-1.4111073447911517,2.5232639493329323,-0.59431782926332011],"value":0.721384856509781},{"weights":[-0.056205070461206624,-0.10864850989994874,1.2282566495730589,1.0147844844039475,1.856734225346008,-2.4869005635032893,1.1848058669317607,-0.39825307384605424],"value":0.486837400998595},{"weights":[-1.5275061646700698,-0.30702207724978758,-0.18009336662632647,-0.80286754783730185,-0.15450761069064786,2.0779517268696162,0.064312241513387075,0.25092680343990814],"value":0.49419418687613947},{"weights":[-0.73063136155308428,-0.63391422774974937,-0.92370192429039633,0.18743717749225272,-4.8996865181793012,-1.4012257494056191,78.582895143624611,-0.61120046318889742],"value":0.0034160321692435509}],"inputCount":8,"type":2},{"nodes":[{"weights":[29.557476828909305,-0.88762435626002623,63.674060990841838,14.310085255927863,4.5054527002503439,22.26203544573745,-7.50129160976224,-321.00597410785878],"value":69.390626411418665}],"inputCount":8,"type":1}]}